<?xml version="1.0"?>
<opencv_storage>
<stage5>
  <maxWeakCount>7</maxWeakCount>
  <stageThreshold>-2.1608307361602783e+00</stageThreshold>
  <weakClassifiers>
    <_>
      <internalNodes>
        0 -1 14716 -1.5665169805288315e-02</internalNodes>
      <leafValues>
        1.5809524059295654e-01 -9.2742270231246948e-01</leafValues></_>
    <_>
      <internalNodes>
        0 -1 31949 2.7901932597160339e-02</internalNodes>
      <leafValues>
        -7.4171978235244751e-01 4.4236305356025696e-01</leafValues></_>
    <_>
      <internalNodes>
        0 -1 126276 -1.2293389067053795e-02</internalNodes>
      <leafValues>
        4.3552306294441223e-01 -7.5713843107223511e-01</leafValues></_>
    <_>
      <internalNodes>
        0 -1 134053 -4.9524717032909393e-03</internalNodes>
      <leafValues>
        5.6567132472991943e-01 -5.9515005350112915e-01</leafValues></_>
    <_>
      <internalNodes>
        0 -1 155729 4.8203345388174057e-02</internalNodes>
      <leafValues>
        -7.2369831800460815e-01 5.2578938007354736e-01</leafValues></_>
    <_>
      <internalNodes>
        0 -1 157680 3.9829243905842304e-04</internalNodes>
      <leafValues>
        3.6563599109649658e-01 -9.4532930850982666e-01</leafValues></_>
    <_>
      <internalNodes>
        0 -1 157680 -2.0893506007269025e-04</internalNodes>
      <leafValues>
        -9.7637200355529785e-01 2.5144833326339722e-01</leafValues></_></weakClassifiers></stage5>
</opencv_storage>
