<?xml version="1.0"?>
<opencv_storage>
<stage14>
  <maxWeakCount>10</maxWeakCount>
  <stageThreshold>-1.9532546997070312e+00</stageThreshold>
  <weakClassifiers>
    <_>
      <internalNodes>
        0 -1 122257 1.0945353657007217e-02</internalNodes>
      <leafValues>
        -7.5207233428955078e-01 -8.7082730606198311e-03</leafValues></_>
    <_>
      <internalNodes>
        0 -1 162298 -1.8769328016787767e-04</internalNodes>
      <leafValues>
        2.1329019963741302e-01 -7.5679486989974976e-01</leafValues></_>
    <_>
      <internalNodes>
        0 -1 3409 -2.2860146127641201e-03</internalNodes>
      <leafValues>
        2.4248994886875153e-01 -6.9821387529373169e-01</leafValues></_>
    <_>
      <internalNodes>
        0 -1 158008 1.7913412302732468e-02</internalNodes>
      <leafValues>
        -4.8564490675926208e-01 3.9691820740699768e-01</leafValues></_>
    <_>
      <internalNodes>
        0 -1 144255 2.2930139675736427e-03</internalNodes>
      <leafValues>
        -5.8401918411254883e-01 2.7525043487548828e-01</leafValues></_>
    <_>
      <internalNodes>
        0 -1 159732 -5.6407508964184672e-05</internalNodes>
      <leafValues>
        -9.6342092752456665e-01 1.8490520119667053e-01</leafValues></_>
    <_>
      <internalNodes>
        0 -1 8881 2.2576633840799332e-02</internalNodes>
      <leafValues>
        -3.8063925504684448e-01 5.0478100776672363e-01</leafValues></_>
    <_>
      <internalNodes>
        0 -1 141999 9.8899635486304760e-04</internalNodes>
      <leafValues>
        -3.9678084850311279e-01 4.1807007789611816e-01</leafValues></_>
    <_>
      <internalNodes>
        0 -1 159732 6.1279177316464484e-05</internalNodes>
      <leafValues>
        1.9192725419998169e-01 -8.2490849494934082e-01</leafValues></_>
    <_>
      <internalNodes>
        0 -1 148299 2.4116178974509239e-03</internalNodes>
      <leafValues>
        -7.1706825494766235e-01 2.2819866240024567e-01</leafValues></_></weakClassifiers></stage14>
</opencv_storage>
