<?xml version="1.0"?>
<opencv_storage>
<cascade>
  <stageType>BOOST</stageType>
  <featureType>HAAR</featureType>
  <height>24</height>
  <width>24</width>
  <stageParams>
    <boostType>GAB</boostType>
    <minHitRate>9.9500000476837158e-01</minHitRate>
    <maxFalseAlarm>5.0000000000000000e-01</maxFalseAlarm>
    <weightTrimRate>9.4999999999999996e-01</weightTrimRate>
    <maxDepth>1</maxDepth>
    <maxWeakCount>100</maxWeakCount></stageParams>
  <featureParams>
    <maxCatCount>0</maxCatCount>
    <featSize>1</featSize>
    <mode>BASIC</mode></featureParams>
  <stageNum>11</stageNum>
  <stages>
    <!-- stage 0 -->
    <_>
      <maxWeakCount>2</maxWeakCount>
      <stageThreshold>-1.8116380274295807e-01</stageThreshold>
      <weakClassifiers>
        <_>
          <internalNodes>
            0 -1 2 -4.9305982887744904e-02</internalNodes>
          <leafValues>
            8.4939759969711304e-01 -9.4005268812179565e-01</leafValues></_>
        <_>
          <internalNodes>
            0 -1 8 -2.3907542228698730e-02</internalNodes>
          <leafValues>
            7.5888890027999878e-01 -9.4200241565704346e-01</leafValues></_></weakClassifiers></_>
    <!-- stage 1 -->
    <_>
      <maxWeakCount>2</maxWeakCount>
      <stageThreshold>-2.3732326924800873e-01</stageThreshold>
      <weakClassifiers>
        <_>
          <internalNodes>
            0 -1 0 -6.1309076845645905e-02</internalNodes>
          <leafValues>
            8.4259259700775146e-01 -9.9657535552978516e-01</leafValues></_>
        <_>
          <internalNodes>
            0 -1 23 6.5931722521781921e-02</internalNodes>
          <leafValues>
            -9.8941433429718018e-01 7.5925207138061523e-01</leafValues></_></weakClassifiers></_>
    <!-- stage 2 -->
    <_>
      <maxWeakCount>2</maxWeakCount>
      <stageThreshold>-3.2662463188171387e-01</stageThreshold>
      <weakClassifiers>
        <_>
          <internalNodes>
            0 -1 10 -5.8359295129776001e-02</internalNodes>
          <leafValues>
            6.3366335630416870e-01 -8.8294315338134766e-01</leafValues></_>
        <_>
          <internalNodes>
            0 -1 9 -5.1587618887424469e-02</internalNodes>
          <leafValues>
            6.0845786333084106e-01 -9.6028798818588257e-01</leafValues></_></weakClassifiers></_>
    <!-- stage 3 -->
    <_>
      <maxWeakCount>2</maxWeakCount>
      <stageThreshold>-4.6913099288940430e-01</stageThreshold>
      <weakClassifiers>
        <_>
          <internalNodes>
            0 -1 6 -2.7491334825754166e-02</internalNodes>
          <leafValues>
            4.2307692766189575e-01 -9.4444441795349121e-01</leafValues></_>
        <_>
          <internalNodes>
            0 -1 7 -2.2701110690832138e-02</internalNodes>
          <leafValues>
            5.4261863231658936e-01 -8.9220792055130005e-01</leafValues></_></weakClassifiers></_>
    <!-- stage 4 -->
    <_>
      <maxWeakCount>3</maxWeakCount>
      <stageThreshold>-1.1938416957855225e+00</stageThreshold>
      <weakClassifiers>
        <_>
          <internalNodes>
            0 -1 12 -1.0319909080862999e-02</internalNodes>
          <leafValues>
            4.3775099515914917e-01 -9.2377495765686035e-01</leafValues></_>
        <_>
          <internalNodes>
            0 -1 26 1.7617028206586838e-02</internalNodes>
          <leafValues>
            -8.5960972309112549e-01 5.1823127269744873e-01</leafValues></_>
        <_>
          <internalNodes>
            0 -1 13 7.3555689305067062e-03</internalNodes>
          <leafValues>
            -7.7198296785354614e-01 6.6351813077926636e-01</leafValues></_></weakClassifiers></_>
    <!-- stage 5 -->
    <_>
      <maxWeakCount>3</maxWeakCount>
      <stageThreshold>-1.3272947072982788e+00</stageThreshold>
      <weakClassifiers>
        <_>
          <internalNodes>
            0 -1 21 3.8871597498655319e-03</internalNodes>
          <leafValues>
            -9.0423572063446045e-01 3.5408559441566467e-01</leafValues></_>
        <_>
          <internalNodes>
            0 -1 3 -1.2166209518909454e-01</internalNodes>
          <leafValues>
            4.3679106235504150e-01 -8.4671002626419067e-01</leafValues></_>
        <_>
          <internalNodes>
            0 -1 22 2.1170247346162796e-02</internalNodes>
          <leafValues>
            -8.5985004901885986e-01 5.3585183620452881e-01</leafValues></_></weakClassifiers></_>
    <!-- stage 6 -->
    <_>
      <maxWeakCount>3</maxWeakCount>
      <stageThreshold>-9.7956782579421997e-01</stageThreshold>
      <weakClassifiers>
        <_>
          <internalNodes>
            0 -1 18 5.6387046352028847e-03</internalNodes>
          <leafValues>
            -8.1280785799026489e-01 4.9738219380378723e-01</leafValues></_>
        <_>
          <internalNodes>
            0 -1 25 -1.1462109163403511e-02</internalNodes>
          <leafValues>
            6.5462481975555420e-01 -7.5850045680999756e-01</leafValues></_>
        <_>
          <internalNodes>
            0 -1 5 5.3876139223575592e-02</internalNodes>
          <leafValues>
            -8.2138472795486450e-01 6.6538923978805542e-01</leafValues></_></weakClassifiers></_>
    <!-- stage 7 -->
    <_>
      <maxWeakCount>3</maxWeakCount>
      <stageThreshold>-1.4905500411987305e+00</stageThreshold>
      <weakClassifiers>
        <_>
          <internalNodes>
            0 -1 20 -3.1556105241179466e-03</internalNodes>
          <leafValues>
            2.5714287161827087e-01 -9.0769231319427490e-01</leafValues></_>
        <_>
          <internalNodes>
            0 -1 14 -5.2138023078441620e-02</internalNodes>
          <leafValues>
            2.9214683175086975e-01 -9.5150631666183472e-01</leafValues></_>
        <_>
          <internalNodes>
            0 -1 4 -3.2008700072765350e-02</internalNodes>
          <leafValues>
            3.6864858865737915e-01 -9.8536407947540283e-01</leafValues></_></weakClassifiers></_>
    <!-- stage 8 -->
    <_>
      <maxWeakCount>2</maxWeakCount>
      <stageThreshold>-5.2571976184844971e-01</stageThreshold>
      <weakClassifiers>
        <_>
          <internalNodes>
            0 -1 19 1.9228290766477585e-02</internalNodes>
          <leafValues>
            -9.1240876913070679e-01 3.9682540297508240e-01</leafValues></_>
        <_>
          <internalNodes>
            0 -1 16 1.9576966762542725e-02</internalNodes>
          <leafValues>
            -9.2254513502120972e-01 3.9389145374298096e-01</leafValues></_></weakClassifiers></_>
    <!-- stage 9 -->
    <_>
      <maxWeakCount>4</maxWeakCount>
      <stageThreshold>-1.1984345912933350e+00</stageThreshold>
      <weakClassifiers>
        <_>
          <internalNodes>
            0 -1 17 6.5474770963191986e-03</internalNodes>
          <leafValues>
            -8.5820895433425903e-01 2.2727273404598236e-01</leafValues></_>
        <_>
          <internalNodes>
            0 -1 29 -9.4660157337784767e-03</internalNodes>
          <leafValues>
            3.3592718839645386e-01 -8.5323393344879150e-01</leafValues></_>
        <_>
          <internalNodes>
            0 -1 28 -1.2980345636606216e-03</internalNodes>
          <leafValues>
            3.1033247709274292e-01 -9.7427064180374146e-01</leafValues></_>
        <_>
          <internalNodes>
            0 -1 1 -2.4010010529309511e-03</internalNodes>
          <leafValues>
            4.0179729461669922e-01 -8.3986580371856689e-01</leafValues></_></weakClassifiers></_>
    <!-- stage 10 -->
    <_>
      <maxWeakCount>4</maxWeakCount>
      <stageThreshold>-8.1549072265625000e-01</stageThreshold>
      <weakClassifiers>
        <_>
          <internalNodes>
            0 -1 11 -4.6140030026435852e-03</internalNodes>
          <leafValues>
            4.0886700153350830e-01 -8.0904525518417358e-01</leafValues></_>
        <_>
          <internalNodes>
            0 -1 15 8.7188445031642914e-03</internalNodes>
          <leafValues>
            -7.0781713724136353e-01 5.7221949100494385e-01</leafValues></_>
        <_>
          <internalNodes>
            0 -1 24 9.1680169105529785e-02</internalNodes>
          <leafValues>
            -9.1142457723617554e-01 3.9772471785545349e-01</leafValues></_>
        <_>
          <internalNodes>
            0 -1 27 3.7585577229037881e-04</internalNodes>
          <leafValues>
            3.3275955915451050e-01 -9.9063539505004883e-01</leafValues></_></weakClassifiers></_></stages>
  <features>
    <_>
      <rects>
        <_>
          0 0 4 20 -1.</_>
        <_>
          2 0 2 20 2.</_></rects>
      <tilted>0</tilted></_>
    <_>
      <rects>
        <_>
          0 0 8 2 -1.</_>
        <_>
          0 0 4 1 2.</_>
        <_>
          4 1 4 1 2.</_></rects>
      <tilted>0</tilted></_>
    <_>
      <rects>
        <_>
          0 1 24 1 -1.</_>
        <_>
          8 1 8 1 3.</_></rects>
      <tilted>0</tilted></_>
    <_>
      <rects>
        <_>
          0 2 9 15 -1.</_>
        <_>
          3 2 3 15 3.</_></rects>
      <tilted>0</tilted></_>
    <_>
      <rects>
        <_>
          0 8 4 10 -1.</_>
        <_>
          2 8 2 10 2.</_></rects>
      <tilted>0</tilted></_>
    <_>
      <rects>
        <_>
          1 0 8 12 -1.</_>
        <_>
          1 0 4 6 2.</_>
        <_>
          5 6 4 6 2.</_></rects>
      <tilted>0</tilted></_>
    <_>
      <rects>
        <_>
          1 9 18 8 -1.</_>
        <_>
          1 9 9 4 2.</_>
        <_>
          10 13 9 4 2.</_></rects>
      <tilted>0</tilted></_>
    <_>
      <rects>
        <_>
          1 16 6 4 -1.</_>
        <_>
          4 16 3 4 2.</_></rects>
      <tilted>0</tilted></_>
    <_>
      <rects>
        <_>
          2 0 3 8 -1.</_>
        <_>
          2 4 3 4 2.</_></rects>
      <tilted>0</tilted></_>
    <_>
      <rects>
        <_>
          2 0 21 1 -1.</_>
        <_>
          9 0 7 1 3.</_></rects>
      <tilted>0</tilted></_>
    <_>
      <rects>
        <_>
          3 13 14 10 -1.</_>
        <_>
          3 13 7 5 2.</_>
        <_>
          10 18 7 5 2.</_></rects>
      <tilted>0</tilted></_>
    <_>
      <rects>
        <_>
          4 17 3 3 -1.</_>
        <_>
          5 17 1 3 3.</_></rects>
      <tilted>0</tilted></_>
    <_>
      <rects>
        <_>
          5 0 2 6 -1.</_>
        <_>
          5 2 2 2 3.</_></rects>
      <tilted>0</tilted></_>
    <_>
      <rects>
        <_>
          7 3 14 3 -1.</_>
        <_>
          7 4 14 1 3.</_></rects>
      <tilted>0</tilted></_>
    <_>
      <rects>
        <_>
          9 15 15 9 -1.</_>
        <_>
          14 15 5 9 3.</_></rects>
      <tilted>0</tilted></_>
    <_>
      <rects>
        <_>
          10 3 11 3 -1.</_>
        <_>
          10 4 11 1 3.</_></rects>
      <tilted>0</tilted></_>
    <_>
      <rects>
        <_>
          10 7 8 9 -1.</_>
        <_>
          10 10 8 3 3.</_></rects>
      <tilted>0</tilted></_>
    <_>
      <rects>
        <_>
          15 1 3 4 -1.</_>
        <_>
          15 3 3 2 2.</_></rects>
      <tilted>0</tilted></_>
    <_>
      <rects>
        <_>
          16 1 2 4 -1.</_>
        <_>
          16 3 2 2 2.</_></rects>
      <tilted>0</tilted></_>
    <_>
      <rects>
        <_>
          16 1 6 2 -1.</_>
        <_>
          19 1 3 2 2.</_></rects>
      <tilted>0</tilted></_>
    <_>
      <rects>
        <_>
          17 0 2 2 -1.</_>
        <_>
          17 1 2 1 2.</_></rects>
      <tilted>0</tilted></_>
    <_>
      <rects>
        <_>
          17 0 6 2 -1.</_>
        <_>
          17 0 3 1 2.</_>
        <_>
          20 1 3 1 2.</_></rects>
      <tilted>0</tilted></_>
    <_>
      <rects>
        <_>
          18 1 4 5 -1.</_>
        <_>
          20 1 2 5 2.</_></rects>
      <tilted>0</tilted></_>
    <_>
      <rects>
        <_>
          18 1 6 12 -1.</_>
        <_>
          21 1 3 12 2.</_></rects>
      <tilted>0</tilted></_>
    <_>
      <rects>
        <_>
          18 2 6 22 -1.</_>
        <_>
          21 2 3 22 2.</_></rects>
      <tilted>0</tilted></_>
    <_>
      <rects>
        <_>
          19 6 3 12 -1.</_>
        <_>
          20 6 1 12 3.</_></rects>
      <tilted>0</tilted></_>
    <_>
      <rects>
        <_>
          19 6 4 4 -1.</_>
        <_>
          21 6 2 4 2.</_></rects>
      <tilted>0</tilted></_>
    <_>
      <rects>
        <_>
          22 2 2 4 -1.</_>
        <_>
          23 2 1 4 2.</_></rects>
      <tilted>0</tilted></_>
    <_>
      <rects>
        <_>
          23 3 1 8 -1.</_>
        <_>
          23 7 1 4 2.</_></rects>
      <tilted>0</tilted></_>
    <_>
      <rects>
        <_>
          23 8 1 16 -1.</_>
        <_>
          23 16 1 8 2.</_></rects>
      <tilted>0</tilted></_></features></cascade>
</opencv_storage>
