<?xml version="1.0"?>
<opencv_storage>
<stage7>
  <maxWeakCount>6</maxWeakCount>
  <stageThreshold>-1.4824342727661133e+00</stageThreshold>
  <weakClassifiers>
    <_>
      <internalNodes>
        0 -1 31890 2.3183222860097885e-02</internalNodes>
      <leafValues>
        -7.2914069890975952e-01 4.3401014804840088e-01</leafValues></_>
    <_>
      <internalNodes>
        0 -1 144284 7.1728825569152832e-02</internalNodes>
      <leafValues>
        -8.7214136123657227e-01 3.3502921462059021e-01</leafValues></_>
    <_>
      <internalNodes>
        0 -1 38234 1.9600410014390945e-02</internalNodes>
      <leafValues>
        -7.4046868085861206e-01 4.4568583369255066e-01</leafValues></_>
    <_>
      <internalNodes>
        0 -1 162140 -3.0652106943307444e-05</internalNodes>
      <leafValues>
        2.4197645485401154e-01 -9.7478491067886353e-01</leafValues></_>
    <_>
      <internalNodes>
        0 -1 157680 2.3217042325995862e-04</internalNodes>
      <leafValues>
        2.7329978346824646e-01 -8.8501417636871338e-01</leafValues></_>
    <_>
      <internalNodes>
        0 -1 105784 -4.1068825870752335e-02</internalNodes>
      <leafValues>
        3.4404024481773376e-01 -7.9647910594940186e-01</leafValues></_></weakClassifiers></stage7>
</opencv_storage>
